digraph Tree {
node [shape=box] ;
0 [label="d_O4-O5_Hab3 <= 3.775\nentropy = 0.768\nsamples = 49\nvalue = [38, 11]"] ;
1 [label="d_O4-O5_Hab3 <= 3.732\nentropy = 0.722\nsamples = 5\nvalue = [1, 4]"] ;
0 -> 1 [labeldistance=2.5, labelangle=45, headlabel="True"] ;
2 [label="entropy = 0.0\nsamples = 1\nvalue = [1, 0]"] ;
1 -> 2 ;
3 [label="entropy = 0.0\nsamples = 4\nvalue = [0, 4]"] ;
1 -> 3 ;
4 [label="E_CH3ab <= -1.386\nentropy = 0.632\nsamples = 44\nvalue = [37, 7]"] ;
0 -> 4 [labeldistance=2.5, labelangle=-45, headlabel="False"] ;
5 [label="d_O4-O5_Hab3 <= 3.927\nentropy = 0.826\nsamples = 27\nvalue = [20, 7]"] ;
4 -> 5 ;
6 [label="E_Hab2 <= -3.185\nentropy = 0.65\nsamples = 6\nvalue = [1, 5]"] ;
5 -> 6 ;
7 [label="entropy = 0.0\nsamples = 4\nvalue = [0, 4]"] ;
6 -> 7 ;
8 [label="E_Hab2 <= -2.901\nentropy = 1.0\nsamples = 2\nvalue = [1, 1]"] ;
6 -> 8 ;
9 [label="entropy = 0.0\nsamples = 1\nvalue = [1, 0]"] ;
8 -> 9 ;
10 [label="entropy = 0.0\nsamples = 1\nvalue = [0, 1]"] ;
8 -> 10 ;
11 [label="E_Hab2 <= -3.972\nentropy = 0.454\nsamples = 21\nvalue = [19, 2]"] ;
5 -> 11 ;
12 [label="entropy = 0.0\nsamples = 1\nvalue = [0, 1]"] ;
11 -> 12 ;
13 [label="E_CH3ab <= -1.785\nentropy = 0.286\nsamples = 20\nvalue = [19, 1]"] ;
11 -> 13 ;
14 [label="entropy = 0.0\nsamples = 18\nvalue = [18, 0]"] ;
13 -> 14 ;
15 [label="a_O4-O5-M4_Hab2 <= 0.143\nentropy = 1.0\nsamples = 2\nvalue = [1, 1]"] ;
13 -> 15 ;
16 [label="entropy = 0.0\nsamples = 1\nvalue = [0, 1]"] ;
15 -> 16 ;
17 [label="entropy = 0.0\nsamples = 1\nvalue = [1, 0]"] ;
15 -> 17 ;
18 [label="entropy = 0.0\nsamples = 17\nvalue = [17, 0]"] ;
4 -> 18 ;
}